0.271320643266746 -0.4792480506405985 0.13364823492627542 0.24880388253861185 -0.0014929876974095757 -0.27520335446915234 -0.301937135240376 0.26053071219895874 -0.33088916343746455 -0.41166018582598973 0.18535981836779725 0.45339334619493654 -0.49605173367208555 0.012192263385776614 0.3126209616521135 0.11252606682938815 0.22175531743179955 -0.20812393182936684 0.41777412251294344 0.21457578339769057 0.04254436801126127 -0.35782995239847304 -0.1266592399485308 0.17413361506634528 -0.05816682557700392 -0.06598600666670629 0.11776697846931716 0.013138242554390889 0.15039718193146723 0.10103895340454438 0.30522319683274646 0.021647152393634128 0.40864888080866824 -0.18076391101145473 -0.4095406507290926 -0.19929994336379664 -0.38601563813645023 0.32868132630767666 -0.45310368061075024 0.12628714831139254 0.047586155919243533 0.3192869956700687 -0.3010524603211877 0.3568503024577332 -0.1483473605679121 0.2546476915298572 -0.2040382931203213 0.38393647956118626 -0.1744883621677512 -0.3349841022808515 -0.10747075605341272 -0.4065396254413497 0.32110565783692846 -0.34884798035743614 -0.11588555130780043 0.44426071223880115 0.48762547490187225 -0.043695452905215926 0.3261228438427398 -0.24862586579294066 0.09737164823088429 0.4028317603316274 0.034557948801815064 0.09020136298542292 

-0.46071823277461266 -0.14281824136546373 -0.4203869098440358 -0.19454008165718173 -0.169280688017868 0.27383029621059585 -0.46004079131002273 -0.07050782156836166 -0.1850731281573117 0.13649114306754462 -0.15365284991996697 -0.45690264379500556 0.379915174517916 0.26324058714368104 0.3780966427248583 -0.08249085616073304 0.10557756439375676 0.013466627408288412 0.09783664796297364 -0.23778433886804973 -0.19912869105929276 -0.47460021794989393 -0.19693743934896524 -0.2579241245964726 0.05757818866264419 0.06550701988816754 -0.024867752584949443 -0.2072020237104909 -0.43574893930517555 0.4788191457576426 -0.16029215636213634 -0.004951369117545679 0.4770807259226818 -0.05922617509933348 -0.1817271945210488 0.019796985875380146 0.0781364298824675 0.35393375050048637 -0.43190272646204997 -0.03546919222066747 0.2819491186191484 0.21860281038225027 0.08602198005317585 -0.4629055867655921 -0.14934360871686703 0.06319068449274501 -0.20027012757543716 0.012334153273549253 0.17346692528472052 -0.3408062666219065 -0.4495223298460024 -0.16218411293532053 -0.39193622722054744 -0.3210971914289096 0.3858270961677057 -0.13463502878588418 -0.2812306508204633 0.2524961702186028 -0.39312041560643085 0.24460324077556062 -0.030214706559505533 0.09825567127910917 -0.35237980771470234 -0.31596517790684875 

0.14507212646824186 -0.4513719937365944 -0.25138749219723056 0.042408516228004234 -0.2732266567299908 -0.11858846509536791 0.42223278690354626 0.4253568728677768 0.06674992457499995 0.033470884989002636 -0.4851399753667719 0.47789926340200495 0.07302890403318585 0.291756996276624 0.06155736027636893 0.3773352415649347 0.08419582853067553 0.20884982636895522 -0.35146654864354143 -0.07154926103210357 0.19389006634241168 -0.39538025547714684 -0.060394762225409515 -0.3337978522954663 0.0069786292640473535 0.31903586413621254 -0.40989326527556147 0.3000687506941452 0.06512635395780453 0.0893477116806074 -0.3018993427837311 -0.0638817446611657 -0.20409623777916264 -0.4624423240583223 -0.4693151596270537 -0.046894999798766546 0.24486407695006773 0.05729540623639695 -0.11488640043451348 -0.3319272024673814 0.33826132070369286 0.09905179746149262 0.28271481824497113 0.3485091818947146 0.10316297586203482 0.2810606172902821 0.1157368760335693 -0.478834808827845 0.250464610487491 -0.3239578667163061 -0.041485793762726986 0.013122707732245109 -0.015979109713174178 0.3443857945393476 -0.3251861051778806 -0.4853651248967501 0.34876407181123215 0.2426745772994341 -0.04330246467982779 -0.08310159295062225 -0.38327048905303673 -0.16132086701066028 -0.40534095925634694 0.21583087275131418 

-0.4229145955839614 -0.2940497416310275 0.07377623145120216 -0.20616844479623198 0.1557267427145982 0.3035683477432196 -0.14878649700359126 -0.40655962305623294 0.3133160836708041 0.2848667182769469 -0.1065808875634846 0.36447919380195326 -0.11596923188426755 -0.24269711279499617 0.3294019198272359 0.2363827038385634 0.007600908054959388 0.14432661504141697 -0.2868134346213519 0.3957089487035581 0.4659462515078151 -0.18299843769421187 0.36555261822728313 -0.18971629305988102 -0.4747360545681829 -0.4508048422262714 -0.3153731619857345 -0.43096665838274595 -0.2425245765954569 0.41358173157067457 -0.042150488025589516 -0.3697882105204051 0.30989166540017865 -0.09653015951933397 -0.4755673550168359 0.35683104262775256 -0.2257051809846038 0.20910596407199056 -0.14422765717633668 0.29430906182653416 0.34461886114385054 0.03814751713995845 0.05908651640325835 -0.37749001856258013 -0.12235808142591975 -0.07125267087095732 0.011208646285465362 0.39176256993569425 -0.19978938840598692 -0.1035581211215495 0.2932732330276141 -0.08772392264659934 -0.31513245000908763 0.34024731608839054 0.06927139970128848 -0.43994979444918036 0.48891697419620117 -0.2712176667980347 0.11470171298016962 -0.13197331916454058 0.3027759363482464 0.12756185270562892 0.3212164761982603 -0.21174686120778363 

-0.2252048684072313 0.10105189113251001 0.4385141972093375 0.20729630934143728 -0.23659683504324247 -0.377664078884995 -0.041275770810136336 0.47481249939666914 0.18057437444444469 -0.30674626771353897 -0.453260772838605 0.45264393677062387 0.35864901546842654 0.3279031757485712 0.46390052283828287 0.09893644907267485 0.4309158358477515 -0.3532311857212732 -0.3860396912453078 -0.12797109782616556 0.2665601265709068 -0.17885796853504055 0.13803508134462672 -0.4907788983301211 0.04346503847491601 -0.16224535311481647 0.39802430884951534 0.44070703848322323 -0.1158781508464306 -0.10388220765940304 0.39727994481934803 -0.44117763189815296 -0.09462071157043095 -0.3698244593690876 -0.4130305910753824 0.2839642869589878 -0.1954266446533799 0.08405587255526903 0.3784661784266631 0.38079206061354054 0.10095420724567639 0.14522774568403318 -0.4433717971618938 -0.20251590302407818 0.19177460757646658 -0.3109705471443647 0.30300753671689784 0.014763749856712804 0.25728604031561475 -0.3222112513829021 -0.41737970870450725 -0.017928030277141516 0.028853879362126134 0.19630827180899701 -0.2952383859698038 0.1713723299573634 0.2932693253264206 -0.45826218748303893 0.4633575057214909 0.47539271717333276 0.05066078422181508 -0.43509301759339036 -0.15476321013814254 -0.4795700311885047 

0.30085180978361603 -0.2920729018678486 -0.356747489094818 0.19989398452925278 -0.4420501939899453 -0.24339243315100345 0.01033178454884498 0.495258784820256 -0.35348432068319835 -0.05048522240132358 0.10144037618280621 -0.40272750586011985 -0.21126511945802473 0.22079990190740706 0.050806064040948784 0.33857701505388726 0.08033135146797654 -0.3154282633903739 0.11550211705854074 0.3869550884686104 0.016789277820441928 0.12614366912642339 0.005059117556461157 0.40966257658655436 -0.0866953444354297 0.03546871629172299 -0.15735687443547342 -0.3704232228567399 0.16282175139998878 0.43567000199564954 0.11272918192905401 0.3427384994497643 -0.2820915637971573 0.4031717397299215 -0.49023002288031425 -0.27418727333656523 -0.36794487272801313 0.40754294651605105 0.410230636659763 0.0810579071349049 -0.4125069474760946 -0.38312056042560183 0.2710712553078545 0.23279526879652201 -0.4128716430674878 -0.1425368018801153 0.27321162175226155 -0.3685283983882439 0.03783243385397406 0.25472356622694914 -0.22747382400886484 0.06651699590732829 -0.023315029283338062 0.056620692541839435 -0.05926294258619891 0.19373736426191168 0.21823718031964723 0.2563823578955985 -0.4626779909886609 0.17883539689298134 -0.022779199092065605 -0.39982861232906786 0.11419623371469034 0.3379145089661961 

0.23389403765883343 -0.17843441728809273 -0.43214468891309965 -0.4626697629357275 0.0591253039604821 -0.33914730073145216 -0.23211181429790817 -0.26428804356400304 -0.4806525383821727 -0.34831357560502085 -0.46609748686743824 0.4818348580878782 -0.1395146898459413 0.3254645285620169 -0.08776259148254473 -0.24682085369006013 -0.2632891235198396 0.2731155992767138 0.17125690512563163 0.206330885200667 0.3531554131904021 0.022049566836007894 -0.05723034667854876 0.05374844125550371 0.15199484840611 0.2885538744752403 0.3922694516926879 -0.19089484132094625 -0.3643902277329307 0.2509266518441873 0.02683322153707579 0.2847385807604741 -0.07007389714342771 0.33884658761352604 0.03735402542362953 -0.2495760668498257 -0.4411059885592262 -0.40805071509235236 -0.3258000568585536 -0.060745649401724666 0.3109342250751058 0.41040212360633466 0.0760907120119877 -0.20884557021965078 0.15178637178121557 0.13792070075556806 0.0035747397173305773 0.46555271562179623 0.30669114961049027 0.42851935640361716 0.11393512666443795 0.48200391634310125 0.21498795584532615 -0.49134072858270894 -0.21185441900618884 0.3413986575018212 -0.05682291297265263 -0.32695027652339637 -0.38547288777373645 0.29788059602123074 0.14890515144561378 0.0017459981469960528 -0.21435979176783482 0.13669582848539163 

-0.13165809466977652 0.03953854335225193 0.26206680197987586 0.3398874811543805 -0.39504258797831204 0.010631308345915746 0.1454886627441757 -0.3469331857473409 -0.4982403508956402 0.46704575323005026 0.3078665332650923 -0.22593241063652847 -0.22091039292787407 -0.3793203585780218 -0.01931173500914296 0.4323019787625625 0.4149274257682686 -0.25612490402418897 -0.10514170358412611 0.47023953022658904 -0.2243803663962386 0.43784944086641375 0.26901215702350645 0.3847186881060606 0.37100497524400033 -0.3535290407731849 0.2891887879251763 0.4092222456715098 0.33817054853070505 0.21203118638716234 -0.19262058146253558 -0.14621544522901064 -0.2636466047762217 -0.41018836093677447 -0.3055218256779618 0.11580787536711679 0.4320836755651093 0.19108394978310972 0.06284704670425634 -0.23624420458745776 0.02714688088496653 0.3043829147090844 -0.20492410609400136 -0.3166614494404991 -0.4802675404933794 0.24332123197254962 -0.4617065958141634 -0.06632033102615142 0.33208476131274867 -0.48654144150024226 0.009335391514138647 -0.020451299858747163 -0.47034505920227176 -0.48857147317593375 -0.16815599976550566 -0.43856892139470505 0.0981735080564744 0.38592025352262327 -0.08786622463605931 -0.4617278010978043 -0.41915759620919435 -0.4180854576981514 0.3093673338215349 0.3006940028849979 

-0.4830901886452923 0.3612943252306178 0.4113002243524484 -0.09912331536483787 -0.21310930166229225 0.3430448852638386 0.11704455297741645 -0.3594012732146058 -0.2712443862840841 0.341497971175196 0.34435847350819815 -0.27985400661936133 0.311137639752162 0.035953533889115596 0.1104284489824332 0.023869883126281688 0.13962914849556263 -0.49484365196608293 -0.4752612165843805 0.19002638531571237 -0.3284069804377866 0.19393067368865646 -0.2147343768781872 -0.4448940792183116 0.0822229025860094 -0.2041812734344045 -0.17718386442469536 0.46698938785499644 -0.30506533521691326 -0.15260349485438596 -0.3959859348892909 -0.09821814752551106 -0.40715235491270885 0.0048438064616992405 0.24259074094474076 -0.4947094908306171 -0.4098388311549792 -0.4438160190880597 0.3843256633664335 0.4855858566528506 0.02017468562749869 -0.30158257046720427 0.43334831608301916 0.15459820334213692 0.29179174716008704 0.011215678611378954 0.2882118923792203 -0.16520326832513277 -0.3867468655826103 0.4048139767028247 -0.495776086491593 -0.4264961193932396 -0.36770863604463766 0.44214991927470004 -0.1970703137573776 -0.2866869488196968 -0.24433744748447428 -0.4040799332056201 -0.09820211700090331 0.23102764035569945 0.14820993524159087 -0.24915441916548098 -0.27256108604817186 -0.00418384165953134 

0.36476496678297865 0.13406375312284646 0.25449247490826477 -0.0628768087322682 -0.09978790975721819 0.22291631394525435 -0.1276314205876854 0.052598030399300444 -0.41953638264280857 0.09427556710353402 -0.2190785330667928 0.24244758631440078 -0.2011728033473169 0.2575366841711616 -0.27363986198115997 -0.49559235507693067 -0.36021971901280414 -0.20423629775984076 -0.30440618374924333 0.04888203784289158 -0.2900078299099541 0.2784921702787021 -0.015320096957724183 0.13934039272328347 -0.33230369256527725 0.42468260378228817 0.2173399513633042 -0.34518638850183314 0.2236336058193933 -0.3135900741748756 0.32966456524347654 -0.30335823666024564 0.46130066911171586 0.04759758481645793 -0.2771364002639398 -0.28727330948585583 0.12798796240644006 0.13327612914995202 -0.1967209627141382 0.3163677514534665 -0.08094328299110565 0.31385828523399006 -0.23478482943896894 0.4834254714034867 0.37230532265990746 -0.05147541063505445 -0.16461549015261656 -0.4702939460166017 0.4909367486495766 0.18094952483058924 -0.31084181359840657 -0.4549544505028269 -0.48686045463750094 0.16181061662959562 -0.3924876553034722 -0.190042360695312 -0.19205255170618996 -0.38252777383516157 0.44693142079500037 0.477390549235605 0.4044792542687089 0.29618014946503535 -0.43457057713217195 0.21703862599692436 

-0.0440895657202629 -0.34851628704949855 0.14672019512236 -0.47076542812040245 0.25352087251005206 0.3897329460901544 -0.4896199607228444 -0.17257215719335828 0.328491091472489 -0.38740240603958087 -0.4753042620862884 0.31435352887226575 -0.2510947280248349 -0.25080340437086757 -0.3417631999397661 -0.2239440514427773 -0.07128965442633206 -0.2415781945955291 -0.13305295789447802 -0.15070440670255902 -0.16696421956267404 -0.19663280222482016 -0.18487271384608983 -0.22977482260807358 0.40029461875240324 0.46697420329378303 0.39669854734166576 -0.1267246202033373 0.14827921627202378 -0.1885581845387444 0.3099721019217031 0.30477289670881613 0.2944176886703367 -0.3885648271686397 0.3115981436332995 0.2795523385965585 0.38508015509763904 -0.17757894817671283 -0.3928345682600157 -0.3387502427319201 0.17278636146286896 0.2141498933545607 -0.2627657970194506 0.30571736847993514 0.41829629739820406 0.4846218462188032 0.4970471450204329 0.015923960662944103 0.2000843086171844 -0.4234412247808046 0.4011414967516501 0.3135826471117177 -0.1409382867494211 0.4757037370929743 -0.11401390300380443 -0.4837906080089557 -0.48132554463669475 0.04413954336215509 -0.05685368276672487 -0.47429985255292173 -0.13169548544126197 -0.07967949208909675 -0.09459603874782407 0.4980776646486923 

-0.3433246245580994 -0.06304109320618057 -0.22976734569017554 0.4689634365996631 0.08980904151582547 0.20418642414083377 0.1499366722126736 0.25540708335453977 0.38531427102767246 -0.2469472652045751 -0.272006193483911 0.10264170827764041 -0.26383583957372336 0.2309863003941185 0.16399891759276952 -0.2607250797670918 -0.3140852704470468 -0.18722428395644397 -0.13367103363273414 0.08990679021223524 0.25923893991239366 -0.17764922172455555 0.002022145104886963 0.0838310652976203 -0.23339911742680808 0.21384664454566604 -0.042728892951336306 0.15023137239236584 0.002668838519088612 -0.06860643458284998 0.21776646108794906 -0.48763915742883457 -0.41970562494467256 0.0763729453488462 0.313621716473204 0.06153623364838512 0.10359169616126962 -0.2794191747835879 0.41954104261411307 -0.29449929959065113 0.18833856459695697 -0.12479017828702033 -0.2884709732217695 0.32099134221203984 -0.3854255619143916 0.273050694280877 -0.0169394819417229 0.4497097563140352 0.0497037162982481 0.024426209170329782 0.3735848104416325 0.146725820158072 -0.17076923028172375 -0.4895506802709123 -0.36290459175960554 0.27031791238496905 0.3330666167054226 0.16467965507356208 0.07555620442719391 0.40844810535169573 0.21437515152100806 -0.01809998112270128 0.2073898899099137 0.13937292199847773 

-0.475060554559649 0.30307407224484617 0.2463487173472968 -0.11293064713126255 0.08632098201641036 -0.26364316447123026 0.4886302119030287 0.08878233046561146 -0.3009221154853656 0.49016774259516127 0.3531013937258002 -0.15587896626969688 0.15704103838683192 0.43306038515261946 0.059076350362282204 0.1171050774113157 -0.031010795252243928 0.49482976622116903 0.4334737092152958 -0.4717445876117896 -0.05160706011046068 -0.160024088174061 -0.3442376547694086 -0.2043553063351924 0.2172501940645406 -0.012990471310196705 -0.19170211381258095 0.41994869826362813 0.19575400099452545 -0.22328054952447385 0.29315389417944593 0.4986391120657998 0.20430043022560074 -0.02517087420662023 0.2954633498396202 0.03250611243975732 0.07463291169247899 0.46622998022353423 0.44268748042921746 0.08926528947792678 -0.2704415762958936 -0.004645130807657272 -0.06434501713562457 -0.16902947982381833 0.10375006702329526 -0.40531361853693026 -0.38424242281101684 0.46968833213482686 0.45289472755262006 -0.11999858547057052 0.4875759548452343 0.21823064509218848 0.4242317085892221 -0.1681955187290588 0.3426055292261413 0.1049224057992506 0.3418139823787437 -0.4121630709402585 -0.1495051385217705 -0.07080401788555546 0.3026482835613491 -0.2579302451388319 -0.4966677227080909 -0.11134365489261477 

0.42159313194965664 -0.3473761241922586 0.24999445962344302 0.44748361905166856 -0.2492229844343432 -0.3425607405203992 -0.15694466428353193 -0.20767945816440658 -0.2295868232418521 -0.025512377240529793 0.05860379642272928 -0.49365252399888926 0.34345769710523455 -0.36396607207662257 0.2624420374753139 -0.4175630952959004 0.26376115336498396 -0.1366068063226865 -0.258254137889513 0.258625483039149 -0.4441808504633836 -0.05122638488640796 0.4008256383327532 0.40728523587894117 -0.031118706816361974 0.3310449656508918 0.16789143185454525 -0.23828594939125292 -0.14244159430291403 0.42761899890882493 0.3821012380772483 0.45762799275370436 -0.27880471350644487 -0.3491428625851343 -0.3767768181928881 -0.022032045381856324 -0.24257779748007613 0.4464418322439493 -0.009057537888151113 0.22089121952385415 0.49623226607395066 -0.06466223676116145 -0.4785356717190874 -0.4848984194111987 -0.02830361785860369 0.13803963956600418 -0.39445245625758585 -0.28034243016630644 0.23493747159288547 0.2131278653062647 0.4603874411608422 0.23133199217098643 0.3400464200610347 0.0942567718918943 0.1819923645474909 0.2108151819484294 -0.3243913174707519 -0.11811077354963462 -0.10122412210527865 -0.1128577221360958 -0.31267993234806624 -0.07661533610913807 0.2379784022664586 0.49012012852645026 

-0.43116368957648066 0.3524458513130413 0.28474956694546416 -0.020663520957484915 -0.20246017519540682 -0.016706478973516514 -0.10710894467879029 0.3996944797582809 -0.21998748042457061 -0.40538356127819275 0.004509566175992186 -0.3222331977242764 -0.2685758309003605 0.19775047075153152 0.3851907855493335 0.39641751307050055 0.30681855786403867 0.2870374263456895 0.3115371477991413 -0.17543795280312957 0.12083595856280482 -0.31840881384046915 0.3526460585286665 0.4578372219957907 -0.24740665073660295 -0.4305663502798782 0.22945205598512575 0.41705518386826135 0.3434582647629155 -0.48693138662685087 -0.06911889861420129 -0.1045964067698888 -0.07858757518919979 -0.3597645038102395 0.26123849301998947 0.19245829844850326 0.11182749056251018 0.4289101150237433 0.21541838256247725 -0.17692658334672418 0.3160447201070553 0.44703036293209775 -0.3386553421035229 0.02897852253505495 0.2793405687788637 -0.14217364064463656 -0.13130583905259663 0.20117290256928755 0.05308641716702056 0.12274559406906183 -0.29472325658078424 0.143186558812475 -0.0038815586736423713 0.1569378460971378 -0.20699119886058415 -0.35873666924318737 0.33674617905022675 -0.3868319608233288 -0.388016634504709 -0.04108739419845864 -0.08503560003606225 0.44542653738027904 -0.08786367170481069 -0.17419068619605216 

-0.17853489447934268 -0.2507843911546632 0.2389258786108156 -0.47095493043195036 0.14834609429035828 -0.43497079638577807 -0.2598070750204504 -0.4095533815887946 0.26096487821156833 -0.284673025086413 0.1805099195535821 -0.025132570679268218 0.43081592249334455 -0.3420309810782012 -0.01876627828070665 -0.4089068949197474 -0.3235423125251883 -0.4263720330381283 -0.15600670604194344 0.17699278504358984 -0.22236107309649455 -0.18953283097628892 -0.4455389994839972 -0.19741739045133588 0.35524154887039483 0.06784644753934199 0.47007512269237595 0.19193046136535274 -0.3673022930878387 -0.3396327814138884 -0.10904443739812753 -0.3271562116135024 -0.47299691966795243 -0.27090868507392574 -0.09804138223031489 0.01558872760436636 -0.2898467476918918 -0.3348874219913476 0.1899479852479291 -0.40481072179160127 -0.15167008014817407 0.3089628600489587 -0.04036281217457527 0.1261243048191758 -0.29635316914846255 -0.40632459522462694 0.4755259672661387 -0.13265617166473032 0.07628396794315973 -0.2540679320453828 0.49245869474470505 0.06627112827727455 0.016786445527288807 0.3814339679725216 -0.488086604370055 0.23024320970152 -0.18122031712061892 0.15000257917335447 0.3253221089727125 -0.06576198794385191 -0.3431613110896248 -0.022640095700649177 -0.16999212528519536 -0.2594585924263403 

0.10795731009527099 -0.28602538199174965 -0.016316747071624893 -0.055921422837442614 -0.1352020476460628 -0.13691593605772956 -0.28595049241816384 -0.13188046426455524 -0.3457902042831915 0.2091867671879617 0.32456922411816846 -0.21398122608577386 0.20536825791863111 0.44360517982297665 -0.3643591934916772 -0.008379791761225164 0.15754864099214838 0.02242640192833867 -0.3695954391637114 -0.09686291885277587 -0.08760477104251452 -0.06918134410545618 -0.3809135600863335 -0.2420308919465871 -0.02897061829422476 0.37879673432289795 0.2789561501543262 0.2959634630696436 -0.4955819112658578 0.35529238248030515 -0.30326073332895376 0.4213117917011139 -0.3842611232564682 -0.400152749912444 -0.08504683580168748 0.33012832579870355 0.15833259971056124 0.3405620427928018 -0.20127081860896345 -0.20864606465639057 -0.28038598146833504 0.3731108344033446 0.49253191331659885 -0.3750689173930227 0.016722114986564174 -0.14396399093062406 0.2947122116581752 0.38743170678917316 0.3629141040544316 0.3503688793748201 -0.06781408176794856 0.2598078427099403 -0.43979282819243415 -0.2529381961088156 0.09561951291420501 -0.23166376750467066 0.43975335256827996 0.11340379848003845 0.4362618569590351 0.4461730649557766 0.10080658762571904 0.4362711901808135 -0.0546125345755345 -0.45968101088537106 

-0.4456827915184435 -0.15443252529801588 -0.30051791136277706 0.39353037445694583 -0.3708854561634628 0.01658256977533068 0.4870237591362021 0.49161293632273995 -0.3422253300266632 -0.0852586444482869 0.18649532294108695 -0.14337976106829042 0.1568617129363271 -0.3284695058073397 -0.015062709357916093 -0.24493926459351067 0.35754207337636723 -0.4420590328206365 0.19638345426602233 0.2609481818724295 -0.36822433951444977 -0.3444231938727379 0.31761592297323515 0.3957449001494221 0.4819522897797296 0.24353826966747916 0.2720447795645533 -0.2541360624816579 0.34220610410988694 -0.4815743030284698 -0.35670097048150395 -0.137328104104248 -0.10859489216727103 -0.06531291393591288 0.348281238753235 0.21081135855594124 -0.04961467206854253 0.2360477761463673 -0.3883556585998337 -0.22771185422988383 0.21753031006034318 0.4334488090248162 0.0810270676213134 -0.2555779444580468 0.18435164673490623 0.41432035855854943 -0.19511488479329542 -0.024555069707022814 -0.3609944670065619 0.34204046050087833 0.06807693724578123 -0.4681132823209657 -0.3075352670361319 0.43980824485488135 0.1501140340562005 -0.46970181442176084 0.39309986817202136 -0.48641070494244565 -0.48778931733375086 -0.4958715432023406 -0.4576235252927138 -0.1137210892119177 -0.18662157442897975 -0.16714495199900892 

-0.052264772612747756 0.4826545769798094 0.33456712245075015 0.31190018367413197 0.19849500709193535 -0.013356731431347413 0.06262926988808648 -0.46469980666527155 -0.26216793483509904 -0.37059011078672865 0.18738937005253564 -0.2848669388831372 0.3255339815952615 -0.2631705870817952 0.41849482378047287 0.4837021425298528 -0.007525897799484427 0.37660729131204196 -0.3002612820232664 -0.4134273914743166 0.2290688662070789 -0.39298454699853647 0.31330947955876487 0.27275687543126015 -0.4419338594185471 -0.3593611359314407 0.13699400296881425 -0.12084341875391724 -0.2159649843888688 -0.13750931640243613 -0.2157248172074543 0.38525686779460266 0.43926629708181175 0.22329432433892316 0.020528368063511993 0.23635524710904432 0.3661323378550537 -0.42936736844471324 -0.37595186530403235 -0.3899692849097076 -0.2692281857091563 0.372667486390751 0.2838909740292421 -0.2321483054472403 0.25517760761897157 0.4623748927675585 0.23104379618935045 0.08621557258412393 0.1806733084434804 -0.3751303486568961 0.46787276745699824 -0.4153785454314347 -0.19497542468832463 0.09014425115292946 0.11300268114908785 -0.2925515670036364 -0.41876561056818773 0.1519967456236424 -0.23310425613451724 0.23712796097028566 0.01749486461965255 -0.2965611404034917 0.3941418883866624 0.05504922069758389 

0.4007817202363154 0.1078160471751426 0.21834810822638362 -0.2448324236593048 0.20503681263011275 -0.20833710958178886 -0.020530572981180106 -0.4947466765423103 -0.14168710927333317 -0.45550570552553726 -0.2792026874938339 -0.06096008776164963 -0.3594641372848003 0.4567430081451863 -0.23010987942949757 -0.3048536927804286 0.40878282878674777 0.20732793845664677 0.3670738434351174 -0.29448315412838655 -0.2626315633073796 0.3825217634984357 0.4967793452074264 0.46074079523485145 0.0016280907924334231 -0.11361986000742841 -0.09542996966317463 0.25683531154204975 -0.2659144528072628 0.2778764933399568 0.1406046059299274 -0.04380638539364434 -0.39872115414974674 -0.030871894580611126 0.4319261918698378 0.43117922398753694 0.09214387844793981 0.3393810109729418 -0.19206255217054535 0.03975217020000976 0.09709228507748091 -0.4752240261168217 -0.31683597224188353 -0.3927465886768857 0.43240471092723487 -0.46121980393511386 0.4776511316187906 -0.2602953317871317 -0.37940940983808213 -0.0599809037901986 0.28212024958659154 -0.06497917406328335 0.37105230868909855 -0.22537333422399064 -0.02628013714833488 0.279403312554097 0.3497818487077968 -0.041485545655578715 0.15669505122542393 0.2714250944269657 0.12909096264958797 -0.29509334485760597 0.3472739199350465 0.3382349609471311 

